digraph Tree {
node [shape=box, fontname="helvetica"] ;
edge [fontname="helvetica"] ;
0 [label="Q_0 <= 0.745\nsquared_error = 160.332\nsamples = 97\nvalue = 91.526"] ;
1 [label="response_avg_chars <= 2216.536\nsquared_error = 100.364\nsamples = 96\nvalue = 92.323"] ;
0 -> 1 [labeldistance=2.5, labelangle=45, headlabel="True"] ;
2 [label="prompt_avg_chars <= 65.346\nsquared_error = 40.637\nsamples = 93\nvalue = 93.484"] ;
1 -> 2 ;
3 [label="#user_prompts <= 8.0\nsquared_error = 47.76\nsamples = 5\nvalue = 80.8"] ;
2 -> 3 ;
4 [label="#question_marks <= 1.0\nsquared_error = 1.0\nsamples = 2\nvalue = 89.0"] ;
3 -> 4 ;
5 [label="squared_error = 0.0\nsamples = 1\nvalue = 88.0"] ;
4 -> 5 ;
6 [label="squared_error = 0.0\nsamples = 1\nvalue = 90.0"] ;
4 -> 6 ;
7 [label="Q_7 <= 0.103\nsquared_error = 4.222\nsamples = 3\nvalue = 75.333"] ;
3 -> 7 ;
8 [label="squared_error = 0.0\nsamples = 1\nvalue = 78.0"] ;
7 -> 8 ;
9 [label="flesch_readability <= 33.9\nsquared_error = 1.0\nsamples = 2\nvalue = 74.0"] ;
7 -> 9 ;
10 [label="squared_error = 0.0\nsamples = 1\nvalue = 75.0"] ;
9 -> 10 ;
11 [label="squared_error = 0.0\nsamples = 1\nvalue = 73.0"] ;
9 -> 11 ;
12 [label="#test <= 15.5\nsquared_error = 30.572\nsamples = 88\nvalue = 94.205"] ;
2 -> 12 ;
13 [label="Q_8 <= 0.299\nsquared_error = 26.924\nsamples = 86\nvalue = 94.512"] ;
12 -> 13 ;
14 [label="Q_0 <= 0.136\nsquared_error = 38.311\nsamples = 14\nvalue = 90.786"] ;
13 -> 14 ;
15 [label="Q_2 <= 0.233\nsquared_error = 19.25\nsamples = 4\nvalue = 96.5"] ;
14 -> 15 ;
16 [label="#no <= 0.5\nsquared_error = 0.667\nsamples = 3\nvalue = 99.0"] ;
15 -> 16 ;
17 [label="Q_0 <= 0.073\nsquared_error = 0.25\nsamples = 2\nvalue = 98.5"] ;
16 -> 17 ;
18 [label="squared_error = 0.0\nsamples = 1\nvalue = 99.0"] ;
17 -> 18 ;
19 [label="squared_error = 0.0\nsamples = 1\nvalue = 98.0"] ;
17 -> 19 ;
20 [label="squared_error = 0.0\nsamples = 1\nvalue = 100.0"] ;
16 -> 20 ;
21 [label="squared_error = 0.0\nsamples = 1\nvalue = 89.0"] ;
15 -> 21 ;
22 [label="Q_0 <= 0.194\nsquared_error = 27.65\nsamples = 10\nvalue = 88.5"] ;
14 -> 22 ;
23 [label="Q_8 <= 0.191\nsquared_error = 9.472\nsamples = 6\nvalue = 84.833"] ;
22 -> 23 ;
24 [label="flesch_readability <= 69.275\nsquared_error = 2.889\nsamples = 3\nvalue = 82.333"] ;
23 -> 24 ;
25 [label="Q_0 <= 0.151\nsquared_error = 0.25\nsamples = 2\nvalue = 83.5"] ;
24 -> 25 ;
26 [label="squared_error = 0.0\nsamples = 1\nvalue = 83.0"] ;
25 -> 26 ;
27 [label="squared_error = 0.0\nsamples = 1\nvalue = 84.0"] ;
25 -> 27 ;
28 [label="squared_error = 0.0\nsamples = 1\nvalue = 80.0"] ;
24 -> 28 ;
29 [label="Q_3 <= 0.205\nsquared_error = 3.556\nsamples = 3\nvalue = 87.333"] ;
23 -> 29 ;
30 [label="squared_error = 0.0\nsamples = 1\nvalue = 90.0"] ;
29 -> 30 ;
31 [label="squared_error = 0.0\nsamples = 2\nvalue = 86.0"] ;
29 -> 31 ;
32 [label="Q_7 <= 0.272\nsquared_error = 4.5\nsamples = 4\nvalue = 94.0"] ;
22 -> 32 ;
33 [label="squared_error = 0.0\nsamples = 1\nvalue = 97.0"] ;
32 -> 33 ;
34 [label="Q_2 <= 0.526\nsquared_error = 2.0\nsamples = 3\nvalue = 93.0"] ;
32 -> 34 ;
35 [label="squared_error = 0.0\nsamples = 1\nvalue = 91.0"] ;
34 -> 35 ;
36 [label="squared_error = 0.0\nsamples = 2\nvalue = 94.0"] ;
34 -> 36 ;
37 [label="Q_5 <= 0.977\nsquared_error = 21.486\nsamples = 72\nvalue = 95.236"] ;
13 -> 37 ;
38 [label="flesch_readability <= 24.235\nsquared_error = 17.235\nsamples = 62\nvalue = 95.919"] ;
37 -> 38 ;
39 [label="squared_error = 0.0\nsamples = 1\nvalue = 84.0"] ;
38 -> 39 ;
40 [label="gpt_clarify_point <= 0.129\nsquared_error = 15.151\nsamples = 61\nvalue = 96.115"] ;
38 -> 40 ;
41 [label="Q_0 <= 0.197\nsquared_error = 6.082\nsamples = 24\nvalue = 97.792"] ;
40 -> 41 ;
42 [label="smog_index <= 13.05\nsquared_error = 1.316\nsamples = 15\nvalue = 99.133"] ;
41 -> 42 ;
43 [label="squared_error = 0.71\nsamples = 13\nvalue = 99.462"] ;
42 -> 43 ;
44 [label="squared_error = 0.0\nsamples = 2\nvalue = 97.0"] ;
42 -> 44 ;
45 [label="#user_prompts <= 10.5\nsquared_error = 6.025\nsamples = 9\nvalue = 95.556"] ;
41 -> 45 ;
46 [label="squared_error = 0.0\nsamples = 1\nvalue = 90.0"] ;
45 -> 46 ;
47 [label="squared_error = 2.438\nsamples = 8\nvalue = 96.25"] ;
45 -> 47 ;
48 [label="gpt_clarify_point <= 0.134\nsquared_error = 18.026\nsamples = 37\nvalue = 95.027"] ;
40 -> 48 ;
49 [label="squared_error = 0.0\nsamples = 1\nvalue = 82.0"] ;
48 -> 49 ;
50 [label="#math_expressions <= 15.0\nsquared_error = 13.682\nsamples = 36\nvalue = 95.389"] ;
48 -> 50 ;
51 [label="squared_error = 12.622\nsamples = 30\nvalue = 94.667"] ;
50 -> 51 ;
52 [label="squared_error = 3.333\nsamples = 6\nvalue = 99.0"] ;
50 -> 52 ;
53 [label="#train <= 1.5\nsquared_error = 27.0\nsamples = 10\nvalue = 91.0"] ;
37 -> 53 ;
54 [label="#error <= 2.5\nsquared_error = 4.667\nsamples = 3\nvalue = 97.0"] ;
53 -> 54 ;
55 [label="#test <= 3.5\nsquared_error = 0.25\nsamples = 2\nvalue = 98.5"] ;
54 -> 55 ;
56 [label="squared_error = 0.0\nsamples = 1\nvalue = 99.0"] ;
55 -> 56 ;
57 [label="squared_error = 0.0\nsamples = 1\nvalue = 98.0"] ;
55 -> 57 ;
58 [label="squared_error = 0.0\nsamples = 1\nvalue = 94.0"] ;
54 -> 58 ;
59 [label="gpt_clarify_point <= 0.143\nsquared_error = 14.531\nsamples = 7\nvalue = 88.429"] ;
53 -> 59 ;
60 [label="smog_index <= 11.0\nsquared_error = 0.889\nsamples = 3\nvalue = 84.667"] ;
59 -> 60 ;
61 [label="squared_error = 0.0\nsamples = 2\nvalue = 84.0"] ;
60 -> 61 ;
62 [label="squared_error = 0.0\nsamples = 1\nvalue = 86.0"] ;
60 -> 62 ;
63 [label="#math_expressions <= 9.5\nsquared_error = 6.188\nsamples = 4\nvalue = 91.25"] ;
59 -> 63 ;
64 [label="#test <= 3.5\nsquared_error = 2.25\nsamples = 2\nvalue = 93.5"] ;
63 -> 64 ;
65 [label="squared_error = 0.0\nsamples = 1\nvalue = 95.0"] ;
64 -> 65 ;
66 [label="squared_error = 0.0\nsamples = 1\nvalue = 92.0"] ;
64 -> 66 ;
67 [label="squared_error = 0.0\nsamples = 2\nvalue = 89.0"] ;
63 -> 67 ;
68 [label="#exclamation_marks <= 1.0\nsquared_error = 9.0\nsamples = 2\nvalue = 81.0"] ;
12 -> 68 ;
69 [label="squared_error = 0.0\nsamples = 1\nvalue = 84.0"] ;
68 -> 69 ;
70 [label="squared_error = 0.0\nsamples = 1\nvalue = 78.0"] ;
68 -> 70 ;
71 [label="Q_6 <= 0.173\nsquared_error = 614.889\nsamples = 3\nvalue = 56.333"] ;
1 -> 71 ;
72 [label="Q_5 <= 0.297\nsquared_error = 72.25\nsamples = 2\nvalue = 39.5"] ;
71 -> 72 ;
73 [label="squared_error = 0.0\nsamples = 1\nvalue = 31.0"] ;
72 -> 73 ;
74 [label="squared_error = 0.0\nsamples = 1\nvalue = 48.0"] ;
72 -> 74 ;
75 [label="squared_error = 0.0\nsamples = 1\nvalue = 90.0"] ;
71 -> 75 ;
76 [label="squared_error = 0.0\nsamples = 1\nvalue = 15.0"] ;
0 -> 76 [labeldistance=2.5, labelangle=-45, headlabel="False"] ;
}
