digraph Tree {
node [shape=box, fontname="helvetica"] ;
edge [fontname="helvetica"] ;
0 [label="Q_0 <= 0.422\nsquared_error = 160.332\nsamples = 97\nvalue = 91.526"] ;
1 [label="prompt_avg_chars <= 922.188\nsquared_error = 100.364\nsamples = 96\nvalue = 92.323"] ;
0 -> 1 [labeldistance=2.5, labelangle=45, headlabel="True"] ;
2 [label="Q_8 <= 0.186\nsquared_error = 61.42\nsamples = 95\nvalue = 92.968"] ;
1 -> 2 ;
3 [label="Q_0 <= 0.161\nsquared_error = 158.356\nsamples = 15\nvalue = 84.333"] ;
2 -> 3 ;
4 [label="squared_error = 68.638\nsamples = 14\nvalue = 86.929"] ;
3 -> 4 ;
5 [label="squared_error = 0.0\nsamples = 1\nvalue = 48.0"] ;
3 -> 5 ;
6 [label="#code_patterns <= 102.5\nsquared_error = 26.642\nsamples = 80\nvalue = 94.588"] ;
2 -> 6 ;
7 [label="squared_error = 21.895\nsamples = 77\nvalue = 95.026"] ;
6 -> 7 ;
8 [label="squared_error = 16.889\nsamples = 3\nvalue = 83.333"] ;
6 -> 8 ;
9 [label="squared_error = 0.0\nsamples = 1\nvalue = 31.0"] ;
1 -> 9 ;
10 [label="squared_error = 0.0\nsamples = 1\nvalue = 15.0"] ;
0 -> 10 [labeldistance=2.5, labelangle=-45, headlabel="False"] ;
}
